0.06730656
-0.00997887
-0.04926633
0.07575150
-0.03500024
0.06349624
0.06228970
0.01109659
-0.07104463
0.07186842
-0.01669617
0.07304645
0.07064623
-0.05182664
0.01790024
-0.07708415
-0.04469187
0.05422162
0.00015520
0.06125342
0.04793451
-0.05193529
0.05306115
0.00529223
0.01743048
0.02727889
0.00293290
-0.03408075
-0.03966646
-0.04889602
-0.06342610
-0.06645483
0.07676543
-0.06581226
0.05807668
0.02019185
0.01994394
0.00810795
0.06734922
0.07160186
0.06980992
0.05912076
0.06688524
-0.04726764
0.06159961
0.05357437
-0.04342164
-0.02757540
0.04667874
0.04079071
-0.04934941
-0.00346602
-0.03934540
-0.02547710
0.02792769
-0.02068978
0.03153712
0.07530356
-0.02159081
-0.04987843
-0.04293152
0.04171802
-0.01838229
-0.01982629
0.03265547
0.06499311
0.05334800
0.06141908
0.01478591
-0.04747938
0.03952378
0.02447778
0.04445662
0.00113507
-0.05973301
0.02415717
-0.07728866
0.05085540
-0.02809506
0.03166630
0.01801711
0.00957959
0.03112568
0.04461169
-0.07470673
0.00283841
-0.04571830
-0.01270047
-0.02728035
0.04220361
0.00520150
0.06742859
-0.03797001
0.03225894
0.01258908
0.01855461
0.06176422
-0.05563741
-0.07209763
0.05409997
0.00560043
-0.04589696
0.03234769
-0.06459068
-0.03864808
-0.07407113
0.03315537
0.00263004
0.06962194
0.00895465
-0.03147274
-0.03177408
-0.03834643
-0.07675786
-0.02597882
0.03479768
-0.05449860
0.03749675
-0.06951971
0.06607911
-0.05331112
0.06740228
-0.04558019
0.04250606
0.04612643
0.04021043
0.06877962
-0.01034600
0.06810042
-0.03263662
0.01333655
-0.05193346
-0.07303125
-0.07640843
0.06820394
-0.02213005
0.04231525
0.05763839
0.04252585
-0.03050707
0.04340740
0.02808559
0.07061796
0.00307610
0.02154991
0.04113428
0.05140343
0.06944991
0.01361670
0.01277531
-0.06593077
0.05180430
0.00296753
-0.06746912
0.02862959
0.00869705
0.07166555
-0.06164492
-0.00352134
-0.05554502
-0.00501550
0.01272621
0.01526906
0.02949293
-0.03737788
-0.00076080
0.04121968
-0.04496875
0.01467177
0.01750324
-0.04168025
0.02111250
0.02751738
-0.05906664
-0.07692837
-0.03972946
0.04465209
0.03931593
-0.07555757
-0.04847639
-0.05003675
0.05211511
-0.06760762
-0.03022792
-0.03956755
0.06291967
0.01983074
-0.06116350
-0.01948749
-0.06519804
-0.01959161
-0.04514693
0.00505363
0.06191909
0.01878072
-0.02553913
0.05639892
-0.00748773
0.00295908
-0.03789465
0.02301770
-0.01767032
-0.00502661
0.00530568
0.06579750
0.02285304
-0.01547560
-0.04795448
-0.05459778
-0.07574851
-0.05682642
-0.00375636
-0.00805864
0.01881976
-0.05626295
-0.03470980
0.03657884
0.00517542
0.00966230
-0.06278737
-0.01505764
0.01633527
-0.02135886
-0.05925813
-0.05165796
-0.04617672
0.06440586
-0.04443559
0.02947318
-0.01645970
0.05744875
-0.04137877
-0.06854902
-0.01322194
-0.02228820
-0.04082058
-0.06978388
-0.07024715
0.01501819
-0.04693905
0.03452422
0.02129871
0.04891196
-0.00675270
0.01383960
0.06301420
0.02045760
0.06770579
-0.05895714
0.04775010
0.01331406
-0.00166889
0.00147713
-0.00145112
-0.06811604
0.02366465
-0.01432779
-0.07423335
-0.01150104
-0.04580956
-0.05204211
0.02229308
0.05111207
0.02729745
0.01092296
0.02129186
0.01939983
0.03014461
0.04132609
0.00304657
0.06739670
0.01638727
0.06563347
-0.04711702
0.04598928
-0.05720337
-0.07097005
-0.00772137
-0.01934818
0.01549049
-0.00763129
0.01012076
-0.06110169
0.04127695
0.05634460
0.02296906
-0.03948939
0.05668210
0.00952972
0.04785216
-0.01959088
0.05781517
0.00917568
-0.01559403
0.01514996
-0.05865980
0.03945551
0.02411525
-0.01264497
0.01138889
0.00074458
-0.01319995
0.00642545
-0.05063477
-0.04165094
-0.05989783
-0.01541146
0.03001941
0.01047999
-0.03575429
0.06575727
-0.06960681
-0.06837231
-0.01370589
0.02833550
-0.07330492
-0.05937771
0.00853038
0.04928629
-0.05232496
0.00820685
0.05846973
0.00127471
-0.01630572
0.05476378
0.01965343
0.06327120
-0.07677685
0.03133539
-0.06877307
0.00857048
-0.00937005
0.02468184
-0.04410096
-0.03750813
0.02143548
-0.04748998
0.00113001
0.03775747
-0.07491266
0.04939800
0.04833643
0.00443150
0.01264314
0.00965750
-0.00967398
0.01506099
-0.00505184
-0.02027073
0.00755329
-0.03519873
0.05707256
-0.07369274
0.05464227
-0.07685531
-0.06246909
-0.01420931
-0.07724331
-0.06121638
0.05095794
-0.06659120
0.05927046
-0.00600079
-0.03544318
0.03590117
0.03682613
0.00394391
0.01456766
-0.00786538
-0.06960941
-0.00776496
-0.02136192
0.00450234
0.03832005
-0.02524333
0.02033436
-0.00987944
0.05013835
-0.02766418
0.06367136
-0.02231388
-0.06796134
-0.02404929
-0.04284042
0.01956121
-0.02607673
-0.07073914
0.05176298
0.06119698
0.06513903
-0.03704734
-0.05343112
-0.06395752
-0.04740643
0.02326103
-0.02996975
0.06738862
0.04617554
0.07296905
0.06728919
-0.07371761
0.03385820
-0.04462208
-0.02453670
0.07365006
0.03339071
-0.02283319
0.02571343
0.02576474
0.03925002
-0.04557664
0.03041498
0.05916511
-0.04567871
0.02445055
-0.02277464
-0.02303488
-0.05257010
0.04236271
-0.03795440
0.07631750
0.04107994
0.03144819
0.05800630
0.01344448
0.04581003
-0.07344109
-0.01277854
0.01779714
-0.02226251
0.01179760
-0.07709813
-0.03981658
0.06803570
0.02930462
0.04168874
0.00274747
0.03841667
-0.02618712
-0.07318119
-0.06319038
0.06177293
-0.01824997
0.06244541
0.07329615
-0.00799565
0.05014690
-0.05720707
-0.04546537
0.00750860
-0.00314180
0.04486957
-0.04079741
0.02972937
-0.04688506
0.07311853
-0.00224842
-0.02642740
-0.04814799
-0.04757540
-0.01408017
-0.06897780
-0.01953738
0.07146062
0.06893138
-0.05573894
0.01326469
-0.06467748
0.00243264
-0.00178982
0.00827319
0.01065469
-0.07430292
-0.06833251
0.06355483
0.05214583
0.02552318
-0.02891515
-0.03542141
0.02982007
0.07025438
-0.02185730
0.07217296
-0.00125296
0.03907690
0.05069945
0.00780859
0.01036173
-0.02487295
0.04796325
-0.07192997
-0.04396759
0.06738391
0.04419506
0.00084878
-0.04801668
-0.04986407
0.03680151
0.01994671
0.00813241
-0.05350129
-0.06961992
-0.00858500
0.03030710
-0.05163989
0.01689781
0.02120056
-0.01510935
0.03910349
-0.05750775
0.03973528
0.05463446
-0.07185723
0.02491781
0.03832536
0.01335288
0.04609631
0.01496857
-0.01698999
-0.03368789
-0.06003497
-0.03958660
0.04404398
0.06113773
0.03114936
0.05706928
-0.04169118
-0.05814598
0.00044379
0.03220772
-0.04798013
0.03675853
0.06953809
0.01532278
0.01611157
0.06140392
-0.07730528
-0.03756191
-0.06103002
0.05160048
-0.06162785
0.00070600
0.03446936
0.00948584
0.01014265
-0.03940501
0.02698190
-0.07015725
-0.01882065
-0.00784412
-0.02426568
0.06213777
-0.02089406
0.04996719
0.01138754
0.04016091
-0.01550580
-0.05182476
0.07633954
-0.05218057
-0.03638161
-0.02641561
0.07560611
0.04722927
0.06743917
0.00012605
0.06626244
-0.03838812
0.05423093
0.02600746
0.06993941
0.00095336
-0.00123908
-0.00546658
-0.00769982
0.03282708
-0.07700594
-0.06859023
0.01106034
0.00642937
0.05053717
0.01522975
0.03988862
0.01510041
0.00120870
-0.04334598
0.01653795
-0.05400374
0.03263253
0.00905757
-0.04028729
0.01849049
0.00673449
-0.00303597
-0.04457510
-0.05846418
-0.03042513
-0.05592652
0.04762508
0.06192523
-0.02006154
0.04819003
-0.04118522
-0.00145354
-0.03343515
0.00706846
-0.04234111
0.07086537
-0.05416135
0.07347216
0.04747171
-0.03390413
0.05848947
-0.02839304
-0.03155952
0.07117114
0.01493608
0.06957949
-0.00475370
-0.04336801
-0.02643736
0.01648772
0.06288804
0.04160066
-0.06767705
-0.03916456
-0.02372163
-0.05483920
0.05023751
0.02185048
-0.06132335
-0.01189328
0.03390652
-0.04642737
-0.04728233
0.06944128
-0.02928076
-0.02059687
-0.05245785
0.01179380
-0.04095646
0.04541970
0.06164646
-0.00066407
0.02651756
-0.03430974
-0.05856648
-0.04499446
-0.00787020
0.03944869
0.05932377
0.00680584
0.07537098
0.03203526
-0.00659927
0.06404607
-0.02189254
-0.03752981
0.06578890
0.00397554
0.02339331
-0.04614828
0.04149921
-0.00525006
-0.06078857
0.05984204
-0.05626462
0.06640725
-0.05095351
0.00641035
-0.03535439
0.03169983
-0.02953670
-0.00462360
0.00131020
-0.07721663
0.03686236
0.04424241
-0.07316369
-0.01079567
0.01406663
0.04582891
-0.06544928
0.01272969
0.01442492
0.05622150
0.01989802
-0.01049563
0.06351607
-0.06925118
0.03552490
0.05907867
0.05574992
-0.03911224
0.01364090
-0.03751242
0.00430153
0.03390915
0.05947467
0.02306620
0.03882384
-0.04021472
0.02655423
-0.05502493
-0.01915935
-0.01670785
-0.06249936
0.05980032
0.00749809
-0.00262492
-0.06992147
-0.03182528
-0.05229176
-0.05852276
-0.05222918
-0.03284756
0.04079504
0.06268716
-0.01485043
0.00096744
-0.01496636
0.03570291
-0.04408749
0.06006608
-0.00264014
0.07485541
-0.00760359
0.01428076
-0.07586112
0.05916384
-0.05788109
0.01970450
-0.02445850
0.06861746
0.03367511
-0.01704738
-0.02717546
0.05000749
-0.06314166
0.05092975
0.00177192
0.00830913
0.04527962
0.01160528
-0.07213015
0.03442824
-0.05678698
0.06590747
-0.07616591
-0.01947328
-0.06592043
0.04558814
-0.02336531
-0.04024467
0.00077397
0.04913730
-0.00705976
0.05924564
0.07189529
-0.02375657
-0.02088591
-0.07372713
-0.03091474
0.01136507
-0.05355770
-0.00441771
0.05160052
0.00214011
-0.06892053
-0.04978623
0.06022137
0.06786750
-0.07550551
-0.07143866
-0.06314020
0.00401872
0.04671351
-0.00194546
0.02895407
0.06064981
-0.02946581
0.03283138
0.01934013
0.00058680
-0.03278864
0.05316712
-0.01422769
0.07135423
0.06166460
-0.02824305
0.05319727
0.07006663
0.02281088
-0.00651436
0.02973986
-0.00862661
-0.04453348
-0.02802091
0.02728711
-0.00703077
-0.00606254
0.03162155
-0.00528218
0.05106626
0.03933424
0.01135560
-0.03592717
-0.07422142
-0.01961946
-0.05343066
0.04726841
0.04533353
-0.02591369
-0.00257739
0.04338561
0.03620297
-0.03002488
0.02138344
0.06515523
0.04579859
0.00659826
-0.01413807
0.07483007
-0.05854111
0.00559461
-0.03251887
0.06784076
-0.07385481
-0.06767860
0.00714705
-0.03075352
0.02610887
0.05262245
-0.06358331
-0.03956686
-0.05259196
0.02977189
0.07038805
0.00729296
-0.05688855
-0.02530163
-0.04050390
-0.02093362
0.06714941
-0.05624024
-0.05599732
-0.04369372
-0.05961769
0.03473427
0.06377899
-0.00936860
-0.05461624
-0.06451385
0.00537412
0.04203879
0.04787919
0.06893151
0.02295883
-0.06232942
-0.01117545
0.03941716
0.01922065
-0.00778009
0.04250756
-0.02716916
0.06017236
-0.03028108
0.05302841
-0.07217364
0.00904293
-0.01182907
0.05549214
-0.02569268
0.01196082
0.02702207
-0.00315081
-0.01363630
0.00086301
-0.06895438
0.07502971
0.01135675
0.00801204
0.06505532
-0.07499850
0.06203099
0.06670860
-0.06300800
0.07447424
-0.03750941
0.03276392
-0.01226671
0.02344325
0.06343800
-0.02648927
0.01219984
0.00280064
0.03686640
0.02597481
0.05476713
0.07462565
0.04587763
-0.04997683
0.03049371
0.00716625
0.00266955
0.02520098
0.04031329
0.03473042
-0.01530323
-0.06729387
0.07249082
-0.07010366
0.03272631
-0.02735131
0.04473899
-0.05491196
0.05866285
0.05602842
-0.03673323
-0.03033201
0.00268949
-0.06354464
0.05206331
-0.00466457
-0.05954744
0.04565264
0.00250198
0.06712919
-0.00087139
0.04567027
-0.02645782
0.04495235
0.03855329
-0.00286173
0.03266200
-0.05860568
0.00828505
0.07620364
-0.05742223
-0.05420904
-0.03014632
-0.05318916
-0.03852218
-0.03666218
-0.06838480
0.02250689
-0.01401443
0.00351624
0.06837255
-0.05773623
0.07711949
0.05056255
0.00477003
-0.04886792
-0.01926124
0.06399620
-0.06201439
-0.04720356
-0.07114536
-0.07494112
-0.04994326
0.06049547
0.01246895
-0.05608406
-0.04224251
0.01183522
0.00725388
-0.07255655
0.05782211
0.06577992
-0.05569982
-0.03813771
-0.02250913
0.07074500
-0.05299226
-0.03367667
-0.03368734
-0.01515658
-0.03869486
0.03787745
0.02997516
0.04033765
0.04870964
-0.07422800
-0.06850022
-0.04119320
0.03801308
-0.03039627
0.02688886
0.02932927
0.06029822
-0.07121267
0.04955317
0.04122058
0.07382652
-0.04879070
0.01908272
0.02073652
-0.01973819
-0.04351366
